{
    "config": {
        "hidden_size": 2,
        "intermediate_size": 4,
        "hidden_act": "silu",
        "dtype": "float32"
    },
    "weights": {
        "gate_proj.weight": [
            [
                -0.6661239862442017,
                -0.13873639702796936
            ],
            [
                -0.339631587266922,
                -0.18859760463237762
            ],
            [
                -0.6246570944786072,
                0.28375449776649475
            ],
            [
                -0.6338542103767395,
                -0.04505790024995804
            ]
        ],
        "up_proj.weight": [
            [
                0.2457990050315857,
                -0.2383487969636917
            ],
            [
                0.4012238085269928,
                0.08918479830026627
            ],
            [
                0.3886972963809967,
                0.45368340611457825
            ],
            [
                -0.31215009093284607,
                0.256978303194046
            ]
        ],
        "down_proj.weight": [
            [
                -0.21632499992847443,
                0.15673039853572845,
                -0.2612442076206207,
                0.231284499168396
            ],
            [
                0.10122259706258774,
                -0.19567160308361053,
                -0.24524779617786407,
                0.12936189770698547
            ]
        ]
    },
    "tests": [
        {
            "input_shape": [
                1,
                1,
                2
            ],
            "output_shape": [
                1,
                1,
                2
            ],
            "input": [
                [
                    [
                        0.7601739168167114,
                        0.02055089920759201
                    ]
                ]
            ],
            "output": [
                [
                    [
                        0.026301799342036247,
                        0.022343099117279053
                    ]
                ]
            ]
        },
        {
            "input_shape": [
                2,
                3,
                2
            ],
            "output_shape": [
                2,
                3,
                2
            ],
            "input": [
                [
                    [
                        -0.5338150262832642,
                        -0.9619768261909485
                    ],
                    [
                        -1.7629637718200684,
                        0.4865371882915497
                    ],
                    [
                        2.1058542728424072,
                        -0.5918406844139099
                    ]
                ],
                [
                    [
                        -1.242525577545166,
                        -0.7119956016540527
                    ],
                    [
                        -1.9618711471557617,
                        -0.8310434818267822
                    ],
                    [
                        1.7153427600860596,
                        1.2089829444885254
                    ]
                ]
            ],
            "output": [
                [
                    [
                        -0.015474299900233746,
                        0.018120599910616875
                    ],
                    [
                        0.3107821047306061,
                        0.17606520652770996
                    ],
                    [
                        0.10468789935112,
                        0.08067049831151962
                    ]
                ],
                [
                    [
                        0.0926337018609047,
                        0.11744440346956253
                    ],
                    [
                        0.300508588552475,
                        0.31680259108543396
                    ],
                    [
                        0.06655920296907425,
                        0.11380720138549805
                    ]
                ]
            ]
        },
        {
            "input_shape": [
                4,
                2,
                2
            ],
            "output_shape": [
                4,
                2,
                2
            ],
            "input": [
                [
                    [
                        1.1757915019989014,
                        0.3696371912956238
                    ],
                    [
                        -0.812253475189209,
                        -0.19344420731067657
                    ]
                ],
                [
                    [
                        -0.03179069980978966,
                        0.6023128032684326
                    ],
                    [
                        1.4110653400421143,
                        1.3919517993927002
                    ]
                ],
                [
                    [
                        1.1545910835266113,
                        -0.6508572101593018
                    ],
                    [
                        0.03910449892282486,
                        0.7470386028289795
                    ]
                ],
                [
                    [
                        0.06856779754161835,
                        0.08989410102367401
                    ],
                    [
                        0.5482121109962463,
                        -0.5458524823188782
                    ]
                ]
            ],
            "output": [
                [
                    [
                        0.047671299427747726,
                        0.05475270003080368
                    ],
                    [
                        0.04699280112981796,
                        0.042514801025390625
                    ]
                ],
                [
                    [
                        -0.008554800413548946,
                        -0.005903900135308504
                    ],
                    [
                        0.03718550130724907,
                        0.08834269642829895
                    ]
                ],
                [
                    [
                        0.05313840135931969,
                        0.024801399558782578
                    ],
                    [
                        -0.013793700374662876,
                        -0.007385099772363901
                    ]
                ],
                [
                    [
                        4.500000159168849e-06,
                        0.00028700000257231295
                    ],
                    [
                        0.014097900129854679,
                        0.0018833000212907791
                    ]
                ]
            ]
        }
    ]
}